{"positional_encoding_frequencies": [1.0, 2.0, 4.0, 8.0], "net.0.weight": [[0.2750662565231323, -0.2419675886631012, 0.016051657497882843, 0.15692783892154694, -0.02688402682542801, 0.006547953467816114, 0.02910449542105198, 0.38469815254211426, 0.18406091630458832, -0.0452507883310318, -0.05120314657688141, -0.043178435415029526, -0.18428032100200653, -0.2343548834323883, -0.03077208623290062, -0.032645534723997116, 0.18517504632472992, -0.0018670394783839583, -0.009051688015460968, -0.014962220564484596, -0.09332673251628876, -0.005314139183610678, 0.017907924950122833, 0.03169621527194977, -0.0007468348485417664, 0.01884937472641468, 0.008138761855661869], [-0.39450961351394653, -0.5619649887084961, 0.012702001258730888, -0.5601632595062256, -0.44870880246162415, -0.4686964452266693, 0.3557649552822113, 0.3291509449481964, -0.4053398370742798, 0.059478696435689926, 0.17463266849517822, 0.11889476329088211, 0.36758649349212646, -0.3116588592529297, 0.11312956362962723, 0.15852557122707367, 0.05156681686639786, -0.0605129599571228, -0.4001484513282776, 0.03444135561585426, 0.11313527822494507, 0.022436311468482018, -0.0018731456948444247, 0.044056348502635956, 0.08557107299566269, 0.001207769033499062, 0.03714927285909653], [-0.37533262372016907, -0.2671293020248413, 0.04755572974681854, 0.23703864216804504, 0.08567274361848831, -0.21100208163261414, 0.02577938511967659, 0.2124987542629242, -0.2817630171775818, -0.062206417322158813, -0.20154453814029694, -0.05060581862926483, 0.31287938356399536, -0.39474982023239136, -0.15284936130046844, 0.03810726851224899, 0.03349904343485832, 0.01168979611247778, 0.08541832864284515, 0.005243563558906317, 0.030167214572429657, -0.01903943344950676, -0.006841551512479782, -0.009651371277868748, -0.01404587086290121, -0.019297169521450996, -0.0008072753553278744], [-0.1333436369895935, 0.01685727946460247, -0.2231149822473526, 0.562795877456665, -0.36929821968078613, 0.1311476081609726, 0.18085820972919464, 0.1533396989107132, 0.5146462321281433, -0.13076534867286682, 0.21686705946922302, -0.1671513468027115, 0.21542662382125854, 0.09432203322649002, -0.21724383533000946, -0.04532557725906372, -0.02538178861141205, -0.044447217136621475, 0.015205178409814835, -0.016256731003522873, -0.16586604714393616, -0.003319329349324107, 0.00331517425365746, 0.024819297716021538, -0.007768085226416588, -0.002737691393122077, 0.021391063928604126], [0.18074128031730652, 0.2132759839296341, 0.04064182564616203, -0.00826908927410841, 0.12829013168811798, -0.043281376361846924, 0.13678424060344696, -0.050614986568689346, -0.06044168770313263, -0.02074815332889557, -0.018403310328722, -0.3439364731311798, 0.022273605689406395, 0.35474321246147156, -0.18317070603370667, 0.022184189409017563, -0.10655873268842697, -0.006904157809913158, 0.019266266375780106, -0.11585452407598495, -0.098908931016922, -0.008760247379541397, 0.015764614567160606, 0.04924106225371361, 0.0053927721455693245, -0.011401237919926643, -0.022820590063929558], [-0.1119740828871727, -0.19603265821933746, -0.21546046435832977, 0.5169625878334045, 0.08064276725053787, -0.08835030347108841, 0.1921858936548233, 0.4116639792919159, -0.028149446472525597, -0.1231970563530922, 0.06576750427484512, -0.1649230718612671, 0.21786364912986755, -0.06912653893232346, -0.07470464706420898, -0.041870757937431335, 0.031243374571204185, 0.12121681123971939, 0.019617607817053795, 0.023090993985533714, -0.06395286321640015, -0.011641044169664383, -0.0007926461403258145, 0.008582590147852898, -0.014568022452294827, 0.008626059629023075, 0.025513306260108948], [0.27654018998146057, -0.08969637751579285, -0.05627899616956711, 0.09440016746520996, 0.14648829400539398, -0.0910794660449028, -0.06743516027927399, 0.46474379301071167, 0.14626704156398773, 0.002232133410871029, 0.13948896527290344, -0.05026421323418617, -0.03602573648095131, -0.17106635868549347, 0.2192532867193222, 0.020360732451081276, -0.030766097828745842, 0.08388417959213257, -0.014035909436643124, 0.13369464874267578, -0.14644618332386017, -0.001683716895058751, -0.003053422784432769, 0.0210296381264925, 0.015975696966052055, 0.0373561717569828, 0.03188458830118179], [-0.0765296146273613, 0.008662769570946693, -0.24340200424194336, -0.14929819107055664, 0.0305723175406456, 0.15632344782352448, 0.24317817389965057, 0.17100422084331512, 0.4812430441379547, 0.047995369881391525, 0.08441834151744843, -0.2578553259372711, 0.07437960058450699, 0.15795114636421204, -0.05615709722042084, -0.015524011105298996, -0.05902358889579773, -0.04527077078819275, -0.0773102194070816, -0.006441035773605108, -0.10374513268470764, 0.009343275800347328, 0.0008666840731166303, 0.011449066922068596, 0.017507299780845642, -0.008343992754817009, -0.006624873727560043], [-0.02104661986231804, -0.15240749716758728, -0.07735563069581985, 0.5195926427841187, -0.2572643458843231, 0.27332761883735657, 0.13277779519557953, 0.09541195631027222, 0.205472931265831, -0.1349816471338272, 0.2324521243572235, -0.11083871871232986, 0.1404111683368683, 0.007372410502284765, -0.053965792059898376, -0.04098273441195488, 0.002981068566441536, -0.008948228321969509, 0.023984786123037338, 0.017875511199235916, -0.08666108548641205, 0.007600327488034964, -0.01891174539923668, 0.032740939408540726, -0.005077898968011141, 0.006834668107330799, 0.0232078917324543], [0.21625317633152008, -0.01637442223727703, -0.48563456535339355, 0.04452003538608551, 0.35244375467300415, -0.024913465604186058, 0.09857829660177231, 0.03652794659137726, 0.2809271514415741, -0.01769893988966942, -0.2804226577281952, 0.05355261638760567, 0.03121342696249485, -0.02939179353415966, 0.11641578376293182, 0.007754221558570862, 0.0019262348068878055, 0.10925769805908203, 0.012994861230254173, -0.022702280431985855, 0.005585953593254089, -0.001965314382687211, -0.003419142449274659, -0.00958986021578312, 0.0029190045315772295, -0.002743891905993223, 0.031097041442990303], [-0.001776049961335957, -0.2366119921207428, -0.1394994556903839, 0.24652692675590515, 0.07731135934591293, -0.015746699646115303, 0.20058900117874146, 0.25882020592689514, 0.34475111961364746, -0.14890402555465698, 0.042329005897045135, -0.17317184805870056, 0.03377263993024826, 0.27420496940612793, -0.3360374867916107, -0.03399359807372093, -0.09675740450620651, -0.05675934627652168, -0.009774253703653812, -0.038507312536239624, -0.1924394965171814, 0.005196297541260719, 0.0014090330805629492, 0.046305276453495026, -0.004203770775347948, -0.02389209158718586, 0.035064391791820526], [0.050820689648389816, 0.20757392048835754, 0.10785630345344543, -0.009209095500409603, 0.0045196362771093845, 0.37146076560020447, -0.16728293895721436, 0.0926341712474823, -0.2666943073272705, -0.0005598641000688076, 0.004938580095767975, -0.22739839553833008, 0.020533904433250427, 0.08929597586393356, 0.27253013849258423, -0.01298966258764267, -0.019248956814408302, -0.10561583191156387, 0.02822740375995636, -0.035360634326934814, -0.07724260538816452, -0.004257287830114365, 0.005217863712459803, 0.008174560964107513, -0.010893198661506176, -0.0010005483636632562, -0.03192362189292908], [0.08979953080415726, 0.2588351368904114, 0.2970339059829712, -0.25719153881073, -0.7406941652297974, -0.11048655211925507, 0.0172639898955822, 0.21082279086112976, 0.1386764943599701, 0.11223883181810379, 0.10273828357458115, 0.006845384836196899, -0.06525777280330658, -0.17625543475151062, -0.16381289064884186, 0.01484176516532898, 0.04035143181681633, 0.09173398464918137, -0.043867696076631546, 0.04582149535417557, -0.022467225790023804, 0.0023377223405987024, -0.005649697966873646, -0.0073099276050925255, 0.017212647944688797, 0.0045355455949902534, 0.04239300638437271], [0.22098515927791595, -0.20765995979309082, -0.14846143126487732, 0.052719488739967346, 0.26663050055503845, -0.05673534423112869, -0.27708712220191956, 0.3374969959259033, 0.19603368639945984, 0.0373709499835968, -0.09952893853187561, -0.061597954481840134, 0.1293048858642578, 0.33606383204460144, -0.08802120387554169, 0.019693216308951378, -0.01097607146948576, -0.04736258089542389, 0.08371516317129135, 0.022183630615472794, -0.11834961920976639, -0.01312404777854681, -0.004667373839765787, 0.018182624131441116, -0.005158505402505398, 0.024802226573228836, 0.008627047762274742], [-0.15511088073253632, -0.2631920874118805, -0.036895476281642914, 0.3457067310810089, -0.14538253843784332, 0.11520156264305115, -0.1085219606757164, 0.1354660987854004, -0.10499881953001022, -0.020407456904649734, 0.028800375759601593, 0.05259060487151146, 0.18916760385036469, -0.3479759991168976, -0.10026830434799194, -0.00407599238678813, 0.0322265550494194, -0.11659061908721924, 0.018235893920063972, 0.11398565024137497, 0.14282789826393127, -0.03500554338097572, -0.03871745616197586, 0.00801958329975605, -0.00898447260260582, 0.003331876592710614, -0.04484688118100166], [0.31534209847450256, 0.42130929231643677, 0.1230628564953804, -0.26132556796073914, 0.02654963731765747, 0.09295021742582321, 0.07415666431188583, -0.4637713134288788, 0.3165615200996399, 0.01913444511592388, 0.21218548715114594, 0.011839424259960651, -0.13062390685081482, 0.24552509188652039, 0.11844431608915329, -0.004957992117851973, -0.08946733176708221, 0.04567851126194, -0.028463803231716156, 0.04946880415081978, 0.03556489199399948, 0.011824588291347027, -0.010485002771019936, -0.028371566906571388, 0.002364539308473468, 0.015749497339129448, 0.02626829594373703], [-0.07522694766521454, 0.060012031346559525, 0.04512760043144226, -0.050721410661935806, 0.2899433672428131, 0.0760175809264183, 0.08819524198770523, -0.0935102105140686, -0.1890879124403, -0.07137081772089005, -0.08329102396965027, -0.14915622770786285, -0.3391166031360626, -0.11718803644180298, -0.06885936856269836, -0.0733247697353363, 0.018772635608911514, 0.09979351609945297, -0.06207316741347313, 0.0376078300178051, 0.08989980071783066, 0.04275961592793465, 0.015606260858476162, -0.03367745131254196, 0.019892828539013863, 0.02904830500483513, -0.00918157771229744], [-0.546571671962738, -0.6221749186515808, 0.15123264491558075, -0.31879734992980957, -0.14193890988826752, -0.41494107246398926, 0.3191806375980377, 0.2714233696460724, -0.4114873707294464, 0.0257125087082386, 0.11495566368103027, 0.16615812480449677, 0.5289251804351807, -0.23006471991539001, 0.06055054813623428, 0.1447525918483734, 0.006797068286687136, 0.05236111581325531, -0.34195631742477417, 0.02779700793325901, 0.16344046592712402, -0.002784084528684616, 0.0010699607664719224, -0.022889072075486183, 0.058063145726919174, -0.003718162188306451, -0.0009454588871449232], [0.06863045692443848, 0.0329970121383667, 0.08240975439548492, 0.0875949040055275, 0.09920964390039444, -0.02205653302371502, -0.015429194085299969, -0.003429954871535301, 0.5757166743278503, -0.005847352556884289, 0.1627865433692932, -0.1852690875530243, -0.039036963135004044, -0.05297059193253517, -0.1555006057024002, -0.021914493292570114, -0.07500378042459488, -0.023373989388346672, 0.00103756005410105, 0.0683431625366211, -0.14581046998500824, 0.004952617455273867, -0.00873610470443964, 0.013358738273382187, 0.0029185814782977104, -0.003283307421952486, 0.023435965180397034], [-0.11810857802629471, -0.20852002501487732, -0.18036718666553497, 0.46806252002716064, -0.038787901401519775, -0.06952985376119614, -0.04740265756845474, 0.12554307281970978, 0.007600944954901934, -0.0436382032930851, 0.1287149041891098, 0.0956345871090889, 0.29728299379348755, -0.017062028869986534, -0.16235019266605377, -0.012973194010555744, -0.05821404978632927, 0.014576113782823086, 0.08489568531513214, -0.01682957634329796, -0.1361253261566162, -0.036361031234264374, 0.020535683259367943, -0.013301726430654526, -0.0268008504062891, -0.01126894447952509, 0.046724509447813034], [-0.29967808723449707, 0.19820578396320343, -0.04211760312318802, 0.15049007534980774, -0.08836522698402405, 0.23368990421295166, -0.07550587505102158, 0.016816848888993263, -0.16963554918766022, 0.06289313733577728, 0.17640069127082825, -0.13968224823474884, 0.03585207089781761, 0.1617339849472046, -0.40768182277679443, -0.03168091922998428, -0.008092849515378475, -0.01991157978773117, -0.005884275771677494, 0.06323694437742233, 0.11396042257547379, -0.0002640075981616974, -0.029924338683485985, 0.0049773468635976315, -0.004426140338182449, -0.017266612499952316, -0.0035161697305738926], [0.3803793489933014, 0.27661067247390747, 0.21724776923656464, -0.1857287883758545, 0.19826792180538177, 0.10464519262313843, -0.5686403512954712, 0.055349987000226974, -0.27289247512817383, 0.11808399856090546, -0.3461221158504486, 0.07028055936098099, -0.36559993028640747, -0.28436124324798584, 0.23797577619552612, -0.061124809086322784, 0.038004320114851, 0.15579424798488617, 0.05801074579358101, -0.032570477575063705, 0.1879621148109436, 0.005708011798560619, -0.012379461899399757, -0.05743332952260971, 0.006972812581807375, -0.03778703138232231, 0.045110754668712616], [0.07999376207590103, -0.0069010513834655285, 0.42904871702194214, 0.06019032374024391, -0.08810631930828094, -0.18586574494838715, 0.08242333680391312, -0.2693755030632019, -0.43222981691360474, -0.02267448417842388, 0.060634974390268326, 0.1139894425868988, 0.010175798088312149, -0.038920819759368896, 0.11385393887758255, 0.0010207578307017684, 0.046475887298583984, 0.010828839614987373, 0.0010442432248964906, 0.03174380213022232, 0.0326831117272377, 0.0007464905502274632, -0.0023105316795408726, -0.010216745547950268, 0.0028805050533264875, 0.009998989291489124, 0.012003179639577866], [-0.2802051901817322, -0.07352270931005478, 0.1851150542497635, -0.02755790203809738, 0.03812766075134277, 0.10374271124601364, 0.19344855844974518, -0.1772034764289856, -0.3439944386482239, 0.01438154373317957, -0.2303612232208252, -0.019026195630431175, 0.1063544899225235, -0.18164612352848053, 0.2385912835597992, 0.027072805911302567, 0.028578078374266624, 0.1382216066122055, -0.01144001167267561, -0.012184388004243374, 0.14124132692813873, -0.011042308062314987, 0.013317535631358624, -0.027558887377381325, 0.0026263631880283356, -0.008363275788724422, 0.012174497358500957], [0.18065780401229858, -0.25322797894477844, 0.1710997372865677, 0.12475494295358658, 0.13580676913261414, 0.07941105961799622, 0.1778193861246109, 0.34096211194992065, -0.09258729964494705, -0.11253265291452408, 0.15376605093479156, -0.024277683347463608, 0.027922801673412323, 0.07131257653236389, 0.03203783929347992, -0.027204958721995354, -0.0735330879688263, -0.01391083374619484, -0.027827661484479904, 0.04796115681529045, 0.013051468878984451, 0.004018295556306839, -0.0046763671562075615, 0.0058043538592755795, -0.008878698572516441, -0.0036237139720469713, -0.009001706726849079], [0.16091516613960266, -0.16049355268478394, 0.25592532753944397, 0.07875145226716995, 0.08893145620822906, 0.07379569113254547, -0.21992406249046326, 0.2612086534500122, 0.14619477093219757, -0.06454397737979889, -0.03200358524918556, 0.049168605357408524, 0.00011820098734460771, -0.05783013999462128, -0.00526637164875865, -0.007634433917701244, 0.01821840927004814, -0.07084374874830246, -0.03053271770477295, -0.014464100822806358, -0.009808705188333988, -0.005799505393952131, 0.002191422739997506, 0.005272605922073126, -0.005755244754254818, 0.012097649276256561, -0.012002282775938511], [0.1417735368013382, 0.155366450548172, 0.07142127305269241, -0.19507844746112823, 0.1725514680147171, 0.016875004395842552, 0.06577062606811523, -0.2774878740310669, 0.596086323261261, 0.010463240556418896, -0.1083245649933815, -0.15895633399486542, -0.06909045577049255, 0.0931328684091568, -0.07359661906957626, 0.012375646270811558, 0.01931511051952839, -0.022134236991405487, -0.008960908278822899, -0.004805449396371841, -0.137956440448761, -0.002854609629139304, -0.0009837009711191058, 0.026372632011771202, -0.00042117672273889184, 0.006498208735138178, 0.015443269163370132], [0.0018543618498370051, -0.272626131772995, 0.09050962328910828, 0.14098821580410004, -0.13719743490219116, 0.16774487495422363, 0.02975396066904068, 0.29159829020500183, -0.18744607269763947, -0.0061713880859315395, 0.14185096323490143, -0.10760203003883362, -0.027187248691916466, -0.11868128925561905, 0.22744359076023102, -0.004320569336414337, -0.07595791667699814, -0.08617015928030014, 0.00916188582777977, 0.020601818338036537, -0.05156106874346733, 0.012105622328817844, -0.014433244243264198, -0.007134085986763239, 0.008564191870391369, -0.023770306259393692, -0.03423961624503136], [0.1383998543024063, 0.12012059986591339, -0.14202335476875305, -0.14470696449279785, -0.05385349318385124, -0.03603188693523407, 0.046564385294914246, 0.22538746893405914, -0.13463345170021057, 0.1461360901594162, -0.12217812240123749, -0.18767105042934418, -0.029503032565116882, -0.10048379004001617, 0.05652659386396408, 0.046015314757823944, 0.08896294981241226, -0.1413717120885849, -0.0006098101148381829, -0.045656271278858185, -0.15317301452159882, -0.01990697532892227, 0.026896176859736443, 0.16568529605865479, 0.02184183895587921, 0.017090817913413048, -0.029805444180965424], [-0.1998233199119568, -0.16539829969406128, -0.16968801617622375, -0.07813849300146103, -0.165568545460701, -0.12742829322814941, -0.11563067883253098, -0.03913333639502525, -0.053941190242767334, 0.14476867020130157, 0.14812269806861877, -0.12241945415735245, -0.053908251225948334, -0.05230829119682312, -0.04671851918101311, -0.07982932031154633, 0.05052876099944115, -0.001524049905128777, 0.07895507663488388, 0.05439932644367218, -0.07605200260877609, 0.06176947429776192, -0.023119471967220306, -0.03908516466617584, 0.03188560903072357, 0.13201463222503662, 0.0513036772608757], [0.09959477931261063, 0.03641746938228607, 0.24184435606002808, -0.3213516175746918, 0.05320221185684204, 0.2106735110282898, -0.037392258644104004, -0.0607093907892704, -0.14393793046474457, 0.061702415347099304, -0.05275706201791763, -0.17131279408931732, -0.13697631657123566, 0.031238477677106857, -0.30849358439445496, 0.015706123784184456, 0.006173709407448769, 0.13099585473537445, -0.02660834603011608, 0.0015519342850893736, 0.03290077671408653, 0.005347972270101309, -0.003992030862718821, 0.0037370037753134966, 0.007289172150194645, -0.007129221688956022, 0.0389271154999733], [-0.001513807219453156, -0.23058807849884033, 0.0796610563993454, 0.22533078491687775, 0.3073325753211975, 0.13871516287326813, 0.18878598511219025, 0.2797889709472656, 0.19855360686779022, -0.04470048472285271, 0.06737745553255081, 0.003143804846331477, 0.10971463471651077, 0.02541450969874859, 0.07838740944862366, 0.005345269571989775, 0.007163587491959333, -0.01704421639442444, 0.0034541431814432144, 0.054812315851449966, -0.0235366802662611, -0.0004947380512021482, -0.0017689275555312634, -0.00033586492645554245, 0.004094608128070831, 0.015469510108232498, 0.0166475847363472]], "net.0.bias": [0.020854413509368896, -0.2380165010690689, -0.26357215642929077, -0.176721453666687, -0.07493524253368378, 0.1564137041568756, 0.1490001082420349, 0.18125039339065552, -0.12169656902551651, 0.1488960087299347, 0.009830968454480171, -0.01897609978914261, 0.23654930293560028, 0.1468220204114914, -0.14012174308300018, 0.082880899310112, -0.08338115364313126, -0.4396221935749054, 0.12617120146751404, 0.0009731857571750879, 0.04040655121207237, -0.04514326527714729, 0.107769675552845, -0.14296844601631165, 0.05473829060792923, 0.2352188527584076, 0.20816494524478912, -0.13484732806682587, -0.1353621631860733, -0.20579451322555542, 0.017699038609862328, 0.14014804363250732], "net.2.weight": [[-0.04628245159983635, -0.023632002994418144, 0.06101078912615776, 0.05722012743353844, -0.024667363613843918, 0.12902873754501343, 0.27897965908050537, -0.19227896630764008, -0.021937059238553047, -0.3326464295387268, 0.03398434445261955, 0.2055356502532959, 0.09885240346193314, 0.030753936618566513, -0.08768461644649506, 0.05981316417455673, 0.05908767879009247, -0.1377505362033844, 0.05815085768699646, -0.21465528011322021, -0.0014341293135657907, -0.012053213082253933, -0.03908165171742439, 0.07344886660575867, 0.23948325216770172, -0.015354925766587257, -0.027819572016596794, 0.2275417596101761, 0.030051950365304947, -0.0862017273902893, 0.2613210082054138, 0.16636329889297485], [-0.37288251519203186, -0.3003115952014923, 0.125942662358284, -0.013267597183585167, -0.01916676014661789, -0.028103992342948914, 0.13132716715335846, 0.0076655917800962925, -0.000992720597423613, -0.19169583916664124, -0.02484038844704628, -0.23811668157577515, 0.1758585274219513, 0.03811434656381607, -0.13389068841934204, 0.06970960646867752, 0.09942170232534409, 0.46444621682167053, -0.03787628561258316, -0.006273181643337011, 0.06631610542535782, 0.058179836720228195, -0.0016661748522892594, 0.1648060530424118, -0.16336940228939056, 0.0055241892114281654, 0.1407759189605713, 0.06848295032978058, 0.26796093583106995, -0.1613248735666275, -0.2603723406791687, -0.05479276180267334], [-0.004004533402621746, 0.7823105454444885, 0.21782003343105316, 0.029244164004921913, 0.07596616446971893, -0.061822373420000076, -0.05514072626829147, -0.059465184807777405, -0.010664316825568676, 0.15881432592868805, -0.016314420849084854, -0.030898557975888252, -0.02615746110677719, 0.06006934121251106, -0.03597303479909897, -0.0014577399706467986, -0.051078274846076965, 0.8264853358268738, 0.11382132023572922, -0.011178715154528618, 0.071959488093853, -0.070172518491745, -0.08079711347818375, -0.11099723726511002, -0.16266584396362305, 0.036111243069171906, -0.08777312934398651, 0.01702280342578888, 0.20531092584133148, -0.13023780286312103, -0.015462190844118595, 0.11067824065685272], [0.1040714755654335, 0.01148972101509571, -0.26159584522247314, 0.01482144184410572, 0.0009921793825924397, -0.33591926097869873, -0.01964411698281765, 0.11217895895242691, 0.02206277661025524, 0.39823779463768005, -0.01620538905262947, 0.1817564070224762, -0.050201933830976486, -0.043491773307323456, 0.09173417091369629, 0.07988384366035461, 0.06509081274271011, -0.07833448052406311, -0.17060455679893494, 0.049571551382541656, -0.04860919713973999, -0.016375012695789337, -0.7421143651008606, 0.18006666004657745, 0.17064268887043, -0.11244439333677292, -0.07590511441230774, -0.03673390671610832, -0.10448071360588074, -0.07484406977891922, -0.3643876314163208, 0.020987918600440025], [-0.0007988521829247475, 0.09209277480840683, 0.06244997680187225, -0.5375875234603882, 0.04849415272474289, 0.12960124015808105, 0.15173912048339844, 0.30651363730430603, 0.20244799554347992, 0.3969023525714874, 0.1496191769838333, 0.1402297019958496, -0.06537752598524094, -0.05788544565439224, -0.05183066800236702, -0.046861082315444946, 0.04684380441904068, -0.16506913304328918, -0.055868081748485565, 0.04820456728339195, 0.15902526676654816, 0.05176372826099396, -0.1698746234178543, 0.03466179966926575, 0.07905394583940506, -0.028848797082901, -0.1890413463115692, 0.08038143813610077, 0.004213658627122641, 0.1814366728067398, -0.23056422173976898, -0.0149384131655097], [-0.04757806286215782, -0.658528208732605, -0.2558618187904358, -0.26822802424430847, -0.15219564735889435, -0.03681410849094391, -0.12156780064105988, 0.0759587213397026, 0.12028852850198746, -0.16669109463691711, 0.14600063860416412, 0.119308240711689, 0.08213675767183304, -0.056961577385663986, -0.029669789597392082, -0.17796972393989563, 0.14437803626060486, -0.7008639574050903, 0.1942029595375061, 0.04286575689911842, 0.0994083359837532, 0.10618290305137634, -0.06079966202378273, 0.01004151999950409, 0.183409184217453, 0.21492047607898712, 0.02060067653656006, 0.012665562331676483, 0.06802080571651459, -0.1300085335969925, -0.06416206061840057, 0.07329858094453812], [-0.0971636101603508, -0.182963564991951, 0.06509223580360413, -0.476176381111145, 0.15776315331459045, -0.039343446493148804, -0.09103146195411682, -0.050359223037958145, 0.12362977117300034, 0.3224157392978668, 0.25130948424339294, -0.020565755665302277, 0.054277367889881134, 0.31953391432762146, 0.08180408924818039, -0.1261584311723709, 0.03454867750406265, 0.10529053956270218, 0.013496292755007744, 0.08531388640403748, -0.11762751638889313, 0.01815938390791416, 0.017693690955638885, -0.0916680097579956, -0.004342967178672552, 0.26207399368286133, -0.3930787742137909, -0.02845432050526142, 0.11319518834352493, -0.14933374524116516, 0.13533449172973633, -0.010672389529645443], [0.02116183191537857, -0.49915680289268494, 0.40331384539604187, 0.35719799995422363, 0.07537484914064407, -0.14929640293121338, 0.11819576472043991, -0.17908670008182526, -0.020792245864868164, 0.020202511921525, -0.2915434241294861, -0.009855621494352818, 0.10401608049869537, 0.00026857154443860054, 0.011894646100699902, -0.15365174412727356, -0.08308100700378418, -0.06995666772127151, 0.04171759635210037, -0.02035621553659439, 0.09576335549354553, 0.11558211594820023, 0.0959031879901886, 0.024278169497847557, 0.17864882946014404, -0.0021720905788242817, -0.06515543162822723, -0.06631851196289062, -0.10972195863723755, 0.05216784402728081, 0.02083030715584755, 0.0007553126197308302], [0.05745553970336914, 0.1505316197872162, -0.08434800803661346, 0.2042093127965927, 0.11361844837665558, -0.250691682100296, 0.07252124696969986, -0.006371397525072098, -0.0660937950015068, 0.11601923406124115, 0.10039708763360977, 0.18199142813682556, -0.09812597930431366, 0.004668207839131355, 0.13553114235401154, 0.15595151484012604, -0.012156082317233086, -1.014422059059143, -0.062205106019973755, -0.0026395393069833517, 0.06606432050466537, 0.08838816732168198, 0.25371819734573364, -0.05014654994010925, -0.08063823729753494, 0.05131176859140396, 0.013164614327251911, -0.03540554270148277, 0.11004620045423508, -0.1293632686138153, 0.16325992345809937, -0.11611229181289673], [0.17669008672237396, 0.11414621770381927, -0.26944592595100403, 0.16018740832805634, 0.03237713500857353, -0.19550642371177673, -0.1762058585882187, 0.12382481247186661, -0.07019592076539993, 0.09532427787780762, -0.18046340346336365, 0.31591659784317017, -0.1043107658624649, -0.14617328345775604, 0.0353621244430542, -0.21696040034294128, 0.18760283291339874, 0.059728190302848816, 0.23558016121387482, -0.0693335235118866, -0.026563089340925217, -0.014018886722624302, 0.05238521099090576, -0.008330067619681358, 0.17044660449028015, 0.04822637140750885, -0.1601172238588333, 0.18475516140460968, 0.019527561962604523, -0.15584324300289154, 0.34783488512039185, 0.14866141974925995], [0.09847258776426315, -0.06401856988668442, 0.31207275390625, 0.3180731534957886, -0.1510257124900818, 0.1438991129398346, 0.03630920499563217, -0.1644468605518341, 0.032822974026203156, -0.041941504925489426, 0.0606832429766655, 0.1027321144938469, 0.06338545680046082, 0.026753341779112816, -0.048487771302461624, 0.013851695694029331, 0.0803525447845459, -0.14050693809986115, 0.10490313917398453, 0.050062909722328186, -0.1098056435585022, -0.05635608732700348, 0.3415374457836151, 0.18535393476486206, -0.08864980936050415, 0.0281880721449852, 0.05959755927324295, 0.13306653499603271, -0.25754597783088684, -0.14638292789459229, -0.0004913780139759183, 0.021910589188337326], [-0.06092822924256325, 0.884466826915741, 0.2177114337682724, 0.0897548571228981, -0.07482178509235382, 0.1615622639656067, 0.16581372916698456, 0.05745325982570648, -0.12053591758012772, -0.01564181037247181, 0.158818781375885, 0.021582186222076416, -0.36064302921295166, 0.043400838971138, 0.014418208040297031, 0.041591186076402664, 0.003463767236098647, -1.2175061702728271, -0.2947522699832916, -0.12637953460216522, -0.03631904721260071, 0.09652788192033768, -0.24071581661701202, -0.04320233687758446, -0.027780285105109215, -0.0934574156999588, -0.018140694126486778, -0.03426380455493927, 0.041582267731428146, 0.12700945138931274, -0.08616724610328674, -0.11494886875152588], [0.1472397744655609, 0.7658805847167969, -0.0453217551112175, -0.43296754360198975, -0.21768410503864288, 0.11305791139602661, -0.10276713967323303, -0.24697479605674744, -0.012678011320531368, 0.43136337399482727, -0.5103391408920288, -0.08203457295894623, 0.09148377180099487, -0.10453265905380249, 0.20247907936573029, -0.3801688253879547, -0.09556072950363159, 0.40488672256469727, 0.46548593044281006, 0.21732017397880554, -0.30839669704437256, -0.1359098255634308, -0.06595028936862946, 0.13762272894382477, 0.08723225444555283, 0.07987748831510544, -1.0003180503845215, 0.19639529287815094, 0.0073997098952531815, -0.0717928409576416, -0.9384681582450867, -0.04567301645874977], [0.03133349493145943, -0.46406611800193787, 0.014194035902619362, -0.016047945246100426, -0.02649616450071335, -0.01881837658584118, -0.041355159133672714, 0.09696836024522781, 0.039939943701028824, 0.07569362968206406, 0.13245858252048492, 0.09059200435876846, 0.10672692954540253, 0.03208122402429581, 0.12842623889446259, 0.01067454181611538, -0.07257813215255737, 0.015733003616333008, 0.20236113667488098, 0.16422894597053528, -0.008046586066484451, 0.01685182936489582, -0.2730449140071869, 0.025451811030507088, 0.04322822019457817, 0.038826726377010345, -0.3238648772239685, 0.12364691495895386, 0.020246369764208794, 0.1169210895895958, 0.1645340919494629, -0.07613783329725266], [0.008488627150654793, -0.30544519424438477, -0.13243111968040466, -0.17359580099582672, 0.0059708496555686, 0.027920439839363098, -0.004314047750085592, 0.11923964321613312, 0.12047004699707031, 0.0437145009636879, 0.015104634687304497, 0.10041127353906631, 0.08130387961864471, -0.04612471163272858, 0.3247987627983093, -0.03134000673890114, 0.0429270975291729, -0.5144301652908325, 0.05183039605617523, 0.10580165684223175, -0.06093665212392807, 0.01590590737760067, -0.1315215528011322, -0.041029829531908035, 0.06587890535593033, 0.0695602148771286, -0.23211681842803955, 0.1184723824262619, 0.11869844049215317, 0.0681159570813179, 0.05695066973567009, -0.1509721279144287], [0.015275037847459316, 0.4186733365058899, -0.12094942480325699, -0.4343283474445343, -0.1312992125749588, -0.23747222125530243, -0.035944614559412, 0.04777710884809494, 0.07437138259410858, 0.09345025569200516, 0.005185849964618683, 0.04330284148454666, -0.07263843715190887, -0.10390280932188034, -0.046752169728279114, -0.10330577194690704, -0.003208345267921686, -0.4267385005950928, 0.17295074462890625, 0.10624096542596817, -0.06397509574890137, -0.09344033896923065, -0.04173601418733597, 0.04128766059875488, 0.046467967331409454, -0.06323356926441193, 0.14717930555343628, -0.04802022874355316, -0.04299040511250496, -0.07457710057497025, -0.14716310799121857, -0.004230900201946497], [-0.06899064779281616, -0.31437021493911743, 0.03711465746164322, -0.07777497917413712, -0.16757196187973022, 0.1107308492064476, -0.1074320524930954, 0.0589536614716053, 0.010818807408213615, 0.4035523533821106, 0.09280449151992798, 0.12322743982076645, -0.02320394478738308, -0.007536006160080433, -0.026418769732117653, 0.049920130521059036, 0.27001017332077026, -0.28597912192344666, -0.03318006172776222, -0.27246731519699097, -0.16599231958389282, 0.023216499015688896, -0.06230071932077408, 0.09343291819095612, 0.2064528465270996, 0.14891618490219116, 0.2873935401439667, 0.19770845770835876, -0.018260911107063293, -0.010937842540442944, 0.036859069019556046, 0.05800372734665871], [0.18543694913387299, -0.5386292934417725, 0.10791321843862534, -0.25144436955451965, -0.14501641690731049, -0.16459637880325317, -0.02645246684551239, 0.2665834426879883, 0.1303691864013672, 0.05183260515332222, 0.3179705739021301, 0.2734474837779999, 0.19480738043785095, 0.1455432027578354, -0.22620566189289093, 0.31571951508522034, 0.06570124626159668, -0.555356502532959, 0.028955956920981407, 0.013258393853902817, 0.013464221730828285, 0.31044554710388184, 0.060410283505916595, -0.2737778127193451, 0.023115137591958046, 0.010162613354623318, 0.02773236855864525, 0.15536639094352722, -0.12525534629821777, -0.10587260872125626, 0.21801793575286865, -0.10707322508096695], [0.28922340273857117, -0.851261556148529, -0.006702385377138853, -0.17982397973537445, 0.1852387636899948, -0.35863909125328064, -0.05912981554865837, 0.3605422079563141, 0.24674846231937408, 0.20853930711746216, 0.3246927857398987, 0.24649901688098907, 0.3724968731403351, 0.14591269195079803, 0.07199100404977798, 0.4363492429256439, 0.1586698591709137, -0.38810276985168457, 0.10194631665945053, 0.013094139285385609, 0.10733850300312042, 0.48174190521240234, -0.09286606311798096, -0.43385550379753113, -0.02703448385000229, -0.01180085726082325, -0.04021283984184265, 0.010373972356319427, 0.20538491010665894, 0.11149552464485168, 0.014520050957798958, -0.23387522995471954], [0.062100641429424286, 0.46130311489105225, 0.34491434693336487, 0.06011144444346428, 0.17776095867156982, 0.12395670264959335, 0.049780331552028656, -0.10109355300664902, 0.0566958449780941, 0.056660499423742294, -0.06465401500463486, -0.08690354228019714, 0.12161274254322052, -0.022011660039424896, 0.19262458384037018, -0.0334516316652298, -0.09742773324251175, 0.29916366934776306, 0.0868556946516037, 0.09199786931276321, 0.04816538840532303, 0.05679542198777199, 0.08739960193634033, -0.022281257435679436, -0.15354441106319427, 0.0486159473657608, -0.05940721556544304, 0.11204210668802261, 0.09378478676080704, -0.09996098279953003, -0.018424412235617638, -0.2797408998012543], [0.09544235467910767, -0.21037234365940094, -0.20421065390110016, -0.13792061805725098, 0.09515661746263504, 0.05448703095316887, -0.03805253654718399, 0.17218980193138123, 0.12955515086650848, 0.0634550154209137, 0.2261190265417099, -0.02680429443717003, 0.04448230564594269, 0.019973890855908394, 0.055556681007146835, 0.09945347905158997, -0.0825662910938263, -0.04896879196166992, -0.06901849806308746, 0.03464198112487793, 0.07346203178167343, -0.03968820720911026, -0.0930168628692627, -0.018509740009903908, 0.017378678545355797, -0.10033360123634338, -0.24779032170772552, 0.03633773326873779, 0.09666604548692703, -0.11807984858751297, -0.08740922808647156, 0.02186046913266182], [0.019908849149942398, -0.15084493160247803, 0.005404276307672262, 0.11159564554691315, 0.11750001460313797, -0.10873730480670929, -0.18826724588871002, 0.0974673181772232, -0.5319911241531372, -0.037061408162117004, 0.04880286380648613, -0.24650545418262482, -0.7482604384422302, 0.0785997211933136, -0.01931736432015896, 0.15052132308483124, -0.10620254278182983, 0.017605328932404518, -0.3384840786457062, -0.06817179173231125, -0.690783679485321, 0.06650484353303909, -0.265753835439682, -0.2336186170578003, -0.5218946933746338, 0.029974104836583138, 0.08487922698259354, -0.01426523458212614, -0.039793360978364944, 0.03825019299983978, 0.06678605079650879, 0.3089156448841095], [0.01863539032638073, -0.0344901904463768, -0.040172748267650604, -0.10456084460020065, 0.11740872263908386, -0.08728933334350586, 0.03285275399684906, 0.09059706330299377, 0.15608683228492737, 0.32527998089790344, 0.029833542183041573, 0.05418137088418007, 0.08633491396903992, -0.06679818034172058, 0.09779126197099686, -0.09671786427497864, 0.02165665477514267, 0.016518767923116684, 0.08857607841491699, 0.09516708552837372, 0.1580929458141327, -0.04027467966079712, 0.09592798352241516, 0.10287076979875565, 0.09357881546020508, -0.0946759432554245, 0.031160293146967888, -0.13608582317829132, 0.03285582736134529, 0.09731202572584152, -0.19149181246757507, 0.005506555549800396], [-0.014523779042065144, -0.20873688161373138, 0.04042526334524155, 0.5544046759605408, -0.09478256851434708, -0.06591810286045074, -0.05969852954149246, -0.12248717993497849, -0.1732298731803894, 0.061825454235076904, -0.21675783395767212, -0.06255637854337692, 0.17612342536449432, -0.10834553092718124, -0.005256073549389839, 0.01347343623638153, -0.053042955696582794, 0.018934017047286034, 0.0998741015791893, -0.12969475984573364, 0.02313464879989624, 0.013576610013842583, -0.11061703413724899, -0.021865012124180794, 0.12232984602451324, -0.09018279612064362, 0.29236409068107605, -0.4147348701953888, -0.05011267215013504, 0.1351921409368515, -0.15069715678691864, -0.1482970416545868], [-0.15676432847976685, 0.01761767454445362, 0.1816551238298416, -0.41042307019233704, -0.177499458193779, 0.11201739311218262, -0.08520594239234924, 0.03253578022122383, 0.1286991387605667, -0.06641975790262222, 0.1955047994852066, 0.14212143421173096, -0.12311391532421112, -0.05973897874355316, 0.014555714093148708, -0.16297657787799835, 0.06578243523836136, -0.2342655211687088, -0.08521579951047897, 0.15559297800064087, 0.14160768687725067, 0.03726077079772949, -0.025853600353002548, 0.11387228220701218, 0.06045865640044212, 0.13638180494308472, 0.06821417808532715, -0.04611792787909508, -0.02680138126015663, 0.05231737717986107, 0.01681746356189251, 0.2936733067035675], [-0.002837856998667121, 0.4753161072731018, 0.0039598350413143635, 0.6403509378433228, 0.14853735268115997, -0.20708198845386505, -0.11171068251132965, -0.20141395926475525, -0.3053060472011566, -0.03637222200632095, -0.12148623913526535, 0.03412320837378502, -0.021354051306843758, 0.00207692408002913, -0.007533715572208166, -0.03574097156524658, -0.03413049131631851, -0.026519302278757095, 0.12130571901798248, -0.08987325429916382, 0.10140947997570038, -0.05413784086704254, 0.004898248706012964, -0.02814650721848011, -0.13659152388572693, 0.03515026345849037, -0.06516407430171967, 0.15800216794013977, -0.0661739781498909, -0.04647340998053551, 0.20890019834041595, 0.005256893113255501], [0.15357962250709534, -0.727981448173523, -0.08708558231592178, 0.08139361441135406, 0.006995721720159054, -0.01873094029724598, -0.09966611862182617, -0.09686637669801712, 0.030144017189741135, -0.010312985628843307, -0.015115518122911453, -0.016483910381793976, 0.17185017466545105, -0.04589292034506798, -0.030146365985274315, 0.20028479397296906, 0.24342289566993713, -0.5407503843307495, 0.0684349462389946, -0.2422550469636917, -0.12727566063404083, 0.18242137134075165, -0.03254758194088936, -0.15309657156467438, 0.23513163626194, 0.18832212686538696, 0.10451807081699371, 0.0001910583523567766, 0.08264289796352386, 0.03893576189875603, -0.05539055913686752, -0.049129288643598557], [0.059692852199077606, 0.006271871272474527, -0.0626830905675888, -0.4456934928894043, 0.03016190603375435, -0.1841101497411728, -0.05875977873802185, -0.08169250190258026, 0.1752660870552063, 0.17814528942108154, 0.15864455699920654, 0.1277947872877121, -0.1099260225892067, 0.15726105868816376, -0.03322845324873924, 0.08235624432563782, 0.06928250193595886, -0.7248687744140625, -0.018170904368162155, 0.15854531526565552, -0.057492468506097794, 0.06323014199733734, 0.1260027438402176, -0.10200317203998566, 0.10453628748655319, -0.15167249739170074, -0.08713385462760925, -0.047026440501213074, 0.035352129489183426, -0.0354839563369751, 0.10699152946472168, 0.17379972338676453], [0.058721136301755905, 0.12929695844650269, 0.05709594860672951, -0.17718367278575897, 0.19808852672576904, -0.025672342628240585, -0.07447081804275513, -0.006394334137439728, 0.03426191583275795, 0.2849525809288025, 0.04834594950079918, -0.030754264444112778, 0.2263633757829666, 0.04613402858376503, -0.0534374862909317, -0.03952893242239952, 0.026557989418506622, 0.1466495841741562, 0.1735488772392273, -0.02994202822446823, 0.05769239738583565, -0.05296962708234787, -0.06667160987854004, 0.005758210085332394, 0.04439373314380646, 0.10282682627439499, -0.2573354244232178, 0.010300137102603912, 0.027113674208521843, -0.029111843556165695, -0.18196828663349152, 0.19819243252277374], [0.04061288759112358, -0.10981813073158264, -0.0824974998831749, -0.15843704342842102, 0.0935119092464447, -2.5453073978424072, -0.07729507982730865, -0.034126851707696915, 0.29926836490631104, 0.16404691338539124, 0.052784815430641174, 0.09293772280216217, 0.05117868632078171, 0.0534420944750309, -0.16248546540737152, 0.14792613685131073, 0.03158724680542946, 0.016642160713672638, 0.03672301024198532, 0.06598133593797684, -0.018150238320231438, -0.015207817777991295, -0.15342438220977783, 0.060233552008867264, 0.0065713003277778625, 0.04371289908885956, -0.3024393320083618, 0.06897200644016266, 0.13224047422409058, -0.052027080208063126, -0.010223585180938244, -0.050692327320575714], [0.17941752076148987, -0.129416361451149, -0.1134265586733818, -0.10403356701135635, 0.3676601052284241, -0.019225968047976494, 0.0848543718457222, 0.08703196793794632, 0.1485014110803604, 0.05818682909011841, -0.14887629449367523, 0.2447587251663208, 0.11709900945425034, 0.16856439411640167, 0.08115459233522415, 0.08936208486557007, 0.12486342340707779, -0.06505929678678513, 0.16842451691627502, 0.16757462918758392, 0.15754657983779907, 0.037058133631944656, -0.19658790528774261, -0.06682191044092178, -0.11868352442979813, -0.017390279099345207, -0.016658518463373184, -0.03959115967154503, 0.036527812480926514, 0.04137008637189865, 0.02430727519094944, 0.13779273629188538], [0.18707816302776337, 0.002462918870151043, -0.04083029925823212, -0.30173537135124207, -0.044270582497119904, -0.18387223780155182, 0.03176606073975563, 0.028622491285204887, 0.14829646050930023, 0.10268700867891312, 0.15484894812107086, -0.07014375925064087, -0.2659045457839966, 0.002316662110388279, -0.00639189500361681, 0.04591957852244377, 0.08961280435323715, 0.12268166244029999, 0.08539026230573654, 0.11909785866737366, -0.008171707391738892, 0.014297319576144218, -0.2897810935974121, -0.06323949247598648, -0.08467181026935577, 0.1506396234035492, -0.019851144403219223, 0.3171220123767853, -0.05765116587281227, -0.08830948919057846, -0.03320181369781494, 0.3313150405883789]], "net.2.bias": [0.21879993379116058, -0.12508715689182281, -0.029686106368899345, 0.013202755711972713, -0.14202295243740082, -0.04238991066813469, 0.012897628359496593, -0.12612898647785187, -0.03480570763349533, 0.1793183535337448, -0.012857895344495773, 0.15929356217384338, -0.04574451595544815, 0.17772944271564484, 0.15065129101276398, 0.2242380976676941, 0.15725566446781158, 0.01923196204006672, -0.06813323497772217, -0.08500363677740097, 0.17601509392261505, -0.15488776564598083, -0.2432892620563507, 0.16268080472946167, -0.019583523273468018, 0.10790719091892242, 0.001440021675080061, -0.08575737476348877, 0.057815030217170715, -0.03685753419995308, 0.018748536705970764, 0.29595673084259033], "net.4.weight": [[0.23648297786712646, -0.419927179813385, -0.31637242436408997, 0.00666273757815361, -0.06263185292482376, -0.3192652761936188, -0.04570050165057182, -0.1530149281024933, -0.3421943783760071, 0.1681259721517563, 0.10647213459014893, -0.17716771364212036, 0.7004656791687012, -0.10040528327226639, -0.22146464884281158, -0.03812465816736221, 0.09777313470840454, -0.48251113295555115, 0.5622865557670593, -0.2526452839374542, -0.17425145208835602, 0.056357838213443756, -0.1616065502166748, 0.0458657406270504, 0.28452539443969727, -0.022143593057990074, -0.4838799238204956, 0.06412548571825027, 0.07056238502264023, -0.017316855490207672, -0.2740525007247925, 0.005926746875047684], [0.05638117715716362, -0.16582389175891876, 0.12002384662628174, -0.05430423468351364, 0.2129875272512436, 0.17512160539627075, 0.23419661819934845, 0.15904073417186737, 0.09016132354736328, 0.15565891563892365, -0.03742295131087303, 0.16554683446884155, -0.2998746633529663, 0.26936155557632446, 0.14765916764736176, -0.2021797001361847, -0.12600456178188324, 0.20083846151828766, -0.3023388087749481, 0.2895326614379883, 0.21538476645946503, 0.04772473871707916, -0.14675785601139069, 0.2984379529953003, -0.00878910068422556, -0.33474621176719666, 0.14485040307044983, 0.12351406365633011, 0.1820431649684906, -0.36365997791290283, 0.16266071796417236, 0.10879290848970413], [-0.17553535103797913, 0.006481966469436884, -0.005890619475394487, 0.3486500382423401, -0.24250595271587372, 0.0520913302898407, -0.15689526498317719, 0.019508911296725273, -0.008667528629302979, -0.2554890513420105, -0.15387792885303497, 0.09651898592710495, 0.007919114083051682, 0.08282586932182312, -0.04180559515953064, 0.2069101631641388, 0.17566350102424622, 0.015269975177943707, -0.00948123075067997, -0.02733566425740719, -0.08037612587213516, 0.59200119972229, -0.3845624625682831, 0.18850716948509216, 0.02866501174867153, 0.013400332070887089, 0.009096884168684483, -0.11019961535930634, 0.22886741161346436, 0.0776238963007927, 0.12335857003927231, 0.23494891822338104]], "net.4.bias": [0.21660786867141724, -0.09084071964025497, 0.2094317376613617]}